{"layers": [{"W": [[0.5398448705673218, 0.3641001880168915, -0.532773494720459, -0.5238985419273376, 0.04372187331318855, 0.5669006705284119, -0.008207685314118862, 0.2551003098487854, 0.633236289024353, -0.42363083362579346, 0.40027227997779846, 0.46060115098953247, 0.5025802850723267, 0.20710863173007965, -0.10287633538246155, 0.3020113706588745], [0.7616889476776123, -0.6881277561187744, -0.023174166679382324, -0.06230348348617554, -0.5145894885063171, 0.1297743320465088, 0.38650938868522644, 0.09748174995183945, -0.18683646619319916, 0.07555139064788818, 0.06828100979328156, 0.3185628056526184, 0.4026547372341156, -0.45210784673690796, 0.5369159579277039, 0.2930145263671875], [0.6056123971939087, 0.49998921155929565, -0.340656578540802, -0.31000804901123047, -0.3371583819389343, 0.18981678783893585, 0.44170302152633667, 0.09373375028371811, 0.058373600244522095, -0.5515873432159424, 0.5010381937026978, 0.015873268246650696, 0.5203206539154053, 0.7291422486305237, 0.3442973494529724, -0.050557855516672134]], "b": [-0.032861486077308655, 0.02598782628774643, 0.0, 0.0, -0.029899125918745995, -0.04572480916976929, 0.008156164549291134, -0.03498033806681633, -0.03880542516708374, 0.0, -0.02869129367172718, -0.013058877550065517, 0.0027805643621832132, -0.05166110023856163, 0.04776257276535034, 0.015418688766658306], "activation": "relu"}, {"W": [[0.4585932493209839, 0.5237246751785278, -0.1847071796655655, -0.07431915402412415, -0.4429917335510254, 0.5082681775093079, -0.2560439109802246, -0.12406129390001297], [0.41982412338256836, -0.3844861686229706, 0.6554537415504456, 0.49754518270492554, -0.31526756286621094, -0.27305224537849426, -0.4799179434776306, -0.46318864822387695], [-0.12103891372680664, 0.38365447521209717, -0.271917462348938, 0.37460100650787354, 0.31408369541168213, 0.35859131813049316, -0.3813265562057495, 0.21687006950378418], [-0.38241827487945557, 0.41177117824554443, -0.053238749504089355, 0.20058858394622803, 0.20437872409820557, 0.15633726119995117, -0.33786165714263916, -0.0801314115524292], [-0.3815222978591919, -0.3156964182853699, 0.36947500705718994, -0.4638198912143707, 0.26471686363220215, -0.33571362495422363, -0.3809868097305298, 0.4353937804698944], [-0.2785264253616333, 0.6035927534103394, 0.04731500521302223, -0.2883169651031494, -0.053939223289489746, -0.06789688766002655, -0.22897061705589294, 0.28278255462646484], [0.1496964693069458, -0.3541715145111084, 0.3837551176548004, 0.11586988717317581, -0.4259411096572876, 0.3596692681312561, 0.4555186629295349, 0.46741941571235657], [-0.14407241344451904, 0.5189578533172607, 0.046968188136816025, -0.35523471236228943, -0.32275938987731934, 0.33435118198394775, -0.35214707255363464, -0.40015625953674316], [0.23379874229431152, 0.35953661799430847, 0.4977463185787201, -0.5490463376045227, -0.3569415807723999, 0.07964629679918289, -0.09625275433063507, 0.43323758244514465], [-0.39382028579711914, 0.028799772262573242, -0.03231966495513916, 0.03694319725036621, -0.22777915000915527, -0.12535810470581055, 0.33355796337127686, 0.09213531017303467], [-0.41131091117858887, 0.07909146696329117, 0.23978590965270996, 0.2553214132785797, -0.3702925443649292, 0.0034438606817275286, 0.3495502173900604, 0.27010416984558105], [-0.22583866119384766, 0.15755021572113037, 0.11662091314792633, -0.19690564274787903, 0.21315062046051025, -0.19718308746814728, 0.36291611194610596, -0.18049092590808868], [-0.4574238061904907, 0.12156328558921814, -0.19094304740428925, 0.4698377251625061, 0.2851783037185669, 0.5817856192588806, -0.34680700302124023, -0.11735998839139938], [-0.35776376724243164, 0.06716784834861755, 0.5147596597671509, -0.09820906072854996, 0.35986077785491943, 0.5136889815330505, -0.23714633285999298, -0.3417070806026459], [-0.3398076295852661, 0.1086898148059845, -0.1468401551246643, 0.503154456615448, -0.047224998474121094, 0.5791410207748413, -0.00533281359821558, -0.29361626505851746], [-0.0018246173858642578, 0.6333547234535217, -0.4175923466682434, -0.0024531008675694466, 0.3480706214904785, -0.2869780659675598, 0.1593826860189438, 0.12367571145296097]], "b": [0.0, -0.011001916602253914, -0.028934424743056297, 0.0440596267580986, 0.0, -0.039915863424539566, -0.009353294968605042, -0.04865092784166336], "activation": "relu"}, {"W": [[-0.12874025106430054, 0.6121116280555725, -0.18015384674072266, -0.29239898920059204], [-0.4320111870765686, 0.38408800959587097, 0.02359728142619133, 0.5636193156242371], [0.8565524816513062, 0.8342374563217163, -0.3891214430332184, -0.6171633005142212], [0.36033666133880615, 0.04507920891046524, 0.23281531035900116, -0.7373325824737549], [0.3087570071220398, 0.15659290552139282, -0.5613707304000854, -0.5267683267593384], [0.289483904838562, 0.2240206003189087, 0.661050021648407, 0.4590965509414673], [-0.3685176968574524, 0.2590613067150116, -0.632956326007843, 0.29051387310028076], [0.6814928650856018, 0.030637497082352638, 0.11274009943008423, -0.6625550389289856]], "b": [-0.03843211010098457, -0.08354812115430832, -0.022794267162680626, 0.09816917032003403], "activation": "relu"}, {"W": [[0.6324770450592041, -0.07828733325004578, 0.8497768640518188, 0.22928190231323242, -0.17532171308994293, 0.40017813444137573, -0.5480561256408691, -0.5528809428215027], [-0.42433100938796997, -0.04840216785669327, 0.8280277848243713, -0.6383821368217468, 0.25908395648002625, -0.18738946318626404, -0.3944501280784607, 0.4487946033477783], [-0.7009115815162659, 0.4715079963207245, 0.2907659709453583, -0.47218072414398193, 0.7312469482421875, 0.8633280396461487, 0.5963420271873474, 0.1790188103914261], [0.8122955560684204, -0.2751367390155792, -0.0658315047621727, -0.0378800630569458, -0.37735453248023987, -0.3033359944820404, -0.38604408502578735, 0.36653417348861694]], "b": [0.11274687200784683, -0.08228646963834763, -0.03079969249665737, 0.0, -0.051949258893728256, 0.14200584590435028, -0.026700234040617943, 0.041758593171834946], "activation": "relu"}, {"W": [[-0.06842432916164398, -0.17448830604553223, 0.6082241535186768, 0.5855774879455566, -0.09763220697641373, -0.5167538523674011, 0.04610658064484596, -0.21931672096252441, -0.36427628993988037, -0.1662241816520691, 0.31045594811439514, 0.208657905459404, -0.28101038932800293, -0.1064063310623169, 0.02877986431121826, -0.4709276556968689], [-0.5319263935089111, 0.13920454680919647, 0.14051643013954163, 0.14671172201633453, -0.050628334283828735, -0.49996137619018555, 0.31894710659980774, 0.47371888160705566, 0.1392947882413864, 0.6072288751602173, -0.23967857658863068, -0.026026707142591476, -0.3522104024887085, -0.14979124069213867, 0.35100531578063965, 0.5722343921661377], [0.2543658912181854, -0.15654940903186798, 0.14876092970371246, 0.23855970799922943, 0.15325616300106049, 0.2518230080604553, 0.0015876864781603217, -0.4207577705383301, -0.12453567236661911, -0.03333631157875061, 0.13822701573371887, 0.6067525744438171, -0.3181942403316498, -0.4262477457523346, -0.4662294387817383, 0.03896450251340866], [0.24454975128173828, 0.34890151023864746, -0.2733314037322998, -0.0069124698638916016, 0.2081226110458374, 0.1695547103881836, 0.4807405471801758, 0.013891935348510742, -0.40656352043151855, -0.39264965057373047, -0.24359261989593506, 0.3836778402328491, 0.1409440040588379, 0.47526395320892334, -0.2622476816177368, 0.24645507335662842], [0.4126218557357788, -0.03290121629834175, 0.25105422735214233, -0.07921705394983292, 0.1530165821313858, -0.32572266459465027, -0.40812423825263977, -0.4589029550552368, 0.01921083591878414, 0.5323159694671631, 0.20213446021080017, -0.003928058315068483, 0.23885156214237213, 0.034484490752220154, -0.10902047157287598, -0.1943226456642151], [0.2366950660943985, 0.23373502492904663, -0.47314077615737915, -0.4466942250728607, -0.2646251916885376, -0.3538792133331299, 0.6205030679702759, 0.06512224674224854, 0.21897916495800018, 0.5158823132514954, 0.35848185420036316, 0.08296617865562439, -0.299728125333786, 0.15517133474349976, -0.039467811584472656, -0.06698106974363327], [0.394035667181015, 0.2585092782974243, -0.020501019433140755, -0.040251314640045166, -0.22706039249897003, 0.22977638244628906, 0.41977939009666443, 0.3276466131210327, -0.3612558841705322, -0.013537225313484669, 0.01937197335064411, -0.11838559806346893, -0.06678950786590576, 0.3821449279785156, 0.001658320426940918, 0.1716422587633133], [0.04377397149801254, 0.20608867704868317, -0.3356074392795563, 0.47063499689102173, 0.22675083577632904, 0.006495074834674597, -0.1335654854774475, -0.270526647567749, -0.34901806712150574, 0.08266433328390121, 0.640204906463623, -0.3841032087802887, 0.23834308981895447, 0.0830695629119873, -0.3364366292953491, 0.37447983026504517]], "b": [0.07590004056692123, -0.045728202909231186, 0.005113551393151283, 0.10747373849153519, -0.10099685192108154, -0.029322270303964615, 0.02780250832438469, 0.0, -0.041684843599796295, -0.049266356974840164, 0.05318135768175125, 0.0569738931953907, -0.009080752730369568, -0.007596473675221205, 0.0, 0.05985720828175545], "activation": "relu"}, {"W": [[0.26864364743232727, -0.220454603433609, 0.06611724197864532], [-0.4524035155773163, -0.06715555489063263, -0.572268009185791], [0.08976371586322784, -0.02469559758901596, -0.6905872225761414], [0.5464754700660706, -0.2704707682132721, -0.20635804533958435], [-0.18404796719551086, 0.696506679058075, 0.09706549346446991], [-0.10428601503372192, -0.8401225805282593, -0.24655894935131073], [-0.8780860900878906, 0.16723237931728363, -0.11995292454957962], [-0.41114139556884766, 0.4375678300857544, 0.2353684902191162], [-0.64802086353302, 0.4040214717388153, -0.11985966563224792], [-0.423286110162735, 0.2603168189525604, 0.5152055025100708], [0.2760932445526123, 0.6040549278259277, 0.07596597820520401], [0.19971467554569244, -0.33787769079208374, 0.3641148805618286], [-0.20397189259529114, -0.4032275974750519, 0.06822659820318222], [-0.14874623715877533, -0.24774529039859772, 0.4549717903137207], [0.2679464817047119, -0.11077827215194702, -0.4992087781429291], [0.13578647375106812, 0.12625335156917572, 0.5730246305465698]], "b": [0.07071938365697861, -0.024984318763017654, 0.04838303104043007], "activation": "linear"}], "scaler": {"data_min": [25.0, 40.4, 998.5], "data_max": [30.2, 88.0, 999.3]}, "threshold": 0.0001345380428649593, "features": ["temperature", "humidity", "pressure"]}