{"layers": [{"W": [[-0.37639230489730835, 0.28676486015319824, -0.24647532403469086, -0.48079702258110046, -0.5497667193412781, 0.1615343987941742, -0.305770605802536, -0.13315410912036896, 0.11391884833574295, 0.4327842891216278, 0.04943762719631195, 0.41443726420402527, -0.3399752378463745, -0.23462000489234924, 0.5049874186515808, -0.4861919581890106], [-0.024622440338134766, 0.40448686480522156, 0.32505083084106445, 0.44641852378845215, 0.4738941192626953, 0.5864473581314087, 0.03182245418429375, 0.5779489874839783, 0.4443208873271942, -0.08876314759254456, 0.6379851698875427, 0.31696850061416626, 0.09858670830726624, 0.5603346824645996, 0.042171988636255264, -0.47066259384155273]], "b": [0.0, 0.016714494675397873, -0.03625509515404701, -0.044718120247125626, 0.10362745821475983, 0.03722337260842323, -0.009082498960196972, 0.0007145105628296733, 0.015115266665816307, -0.012195179238915443, 0.010310781188309193, 0.011545277200639248, -0.026886815205216408, 0.1350651979446411, 0.02729654870927334, 0.0], "activation": "relu"}, {"W": [[0.011741399765014648, -0.4277893304824829, -0.09270584583282471, -0.01925945281982422, -0.2012723684310913, -0.41376709938049316, 0.3404747247695923, 0.3079664707183838], [0.24522468447685242, -0.34690749645233154, -0.27490729093551636, -0.10153782367706299, 0.3221415579319, 0.30294203758239746, -0.04640495777130127, 0.4662412703037262], [-0.0713876411318779, -0.3217548131942749, -0.3439677953720093, -0.1840735673904419, -0.015083339996635914, -0.4426075220108032, -0.11306881904602051, -0.3523029088973999], [-0.17573603987693787, 0.3530219793319702, -0.5015377402305603, -0.3815237283706665, -0.016534578055143356, -0.4198489189147949, -0.48987817764282227, 0.01066135335713625], [-0.33307182788848877, -0.2335224151611328, -0.04416995495557785, 0.08365833759307861, 0.01167116966098547, -0.47319138050079346, -0.29823291301727295, -0.26052555441856384], [0.5040037631988525, -0.038252949714660645, 0.2658016085624695, -0.023815512657165527, 0.008678118698298931, -0.02101719379425049, -0.11767947673797607, 0.2545417249202728], [0.24338661134243011, 0.13196790218353271, -0.14987468719482422, -0.445004940032959, -0.37331289052963257, 0.050318002700805664, 0.023978233337402344, 0.11009962111711502], [-0.3875516653060913, -0.07722818851470947, -0.4263838827610016, 0.28633975982666016, -0.09356534481048584, 0.28963589668273926, -0.3552318811416626, 0.3142089545726776], [0.2672177851200104, -0.007130026817321777, -0.1856643408536911, 0.32403767108917236, -0.3039029836654663, -0.2466193437576294, -0.030010700225830078, 0.5292029976844788], [-0.1648762822151184, -0.13930964469909668, -0.4853776693344116, -0.4668891429901123, 0.36740314960479736, -0.2705768346786499, -0.44647908210754395, 0.11709617078304291], [-0.12745401263237, 0.30222535133361816, 0.3436228036880493, -0.38272738456726074, 0.4165342450141907, -0.42127227783203125, 0.27390623092651367, 0.5754736661911011], [0.11961936205625534, -0.352666974067688, -0.3348701298236847, -0.43692684173583984, 0.0300773736089468, -0.3277219533920288, 0.25914180278778076, 0.33795666694641113], [0.39937829971313477, -0.04598355293273926, -0.09541749954223633, -0.14025866985321045, 0.28898540139198303, 0.2735189199447632, -0.3715122938156128, -0.057917241007089615], [-0.22805435955524445, -0.2386418581008911, 0.3274659812450409, -0.44428324699401855, -0.33981290459632874, 0.16733598709106445, 0.052724599838256836, 0.02681008353829384], [0.5843994617462158, -0.3226433992385864, -0.25600317120552063, -0.23664069175720215, 0.4457685649394989, -0.0032503604888916016, -0.16461431980133057, 0.14321786165237427], [0.18138277530670166, -0.2398056983947754, -0.3127545118331909, -0.21925675868988037, -0.31900763511657715, 0.00903332233428955, 0.16992783546447754, 0.2539393901824951]], "b": [0.029623301699757576, 0.0, -0.0217633917927742, 0.0, 0.01609187386929989, 0.0, 0.0, 0.0273970328271389], "activation": "relu"}, {"W": [[0.5246205925941467, 0.20072220265865326, -0.5997635126113892, 0.14574402570724487], [0.45646971464157104, 0.6641945242881775, 0.11671406030654907, -0.39044973254203796], [-0.09170376509428024, -0.3506450951099396, 0.4479639232158661, 0.24913331866264343], [-0.5198394060134888, 0.5479714274406433, -0.4050199091434479, -0.09924721717834473], [0.7545613646507263, 0.06538727879524231, -0.1336456537246704, -0.1406530737876892], [-0.07056057453155518, 0.4278687834739685, -0.253488689661026, -0.3622521460056305], [0.34665447473526, -0.002400338649749756, 0.1292702555656433, -0.2387993335723877], [-0.12111914157867432, 0.08388678729534149, 0.607523500919342, 0.8346158862113953]], "b": [0.02625775896012783, -0.01849924959242344, 0.05329680070281029, -0.0018363934941589832], "activation": "relu"}, {"W": [[-0.5175746083259583, 0.7750542163848877, -0.4268015921115875, -0.05607590079307556, -0.3161342144012451, 0.022773586213588715, 0.7122242450714111, 0.7501721978187561], [-0.010001255199313164, -0.195405974984169, -0.3949977457523346, 0.03741779178380966, 0.5040099024772644, -0.2633262276649475, 0.006645354442298412, 0.0420408733189106], [-0.030095243826508522, -0.17906539142131805, 0.5052759647369385, -0.43055811524391174, 0.3737359642982483, 0.5937601923942566, -0.030672116205096245, -0.20839767158031464], [0.017945047467947006, 0.0994330421090126, 0.6703307032585144, 0.17712430655956268, 0.7816480398178101, -0.058560874313116074, 0.21314118802547455, -0.42008814215660095]], "b": [-0.006002254318445921, 0.01603497378528118, -0.03058956190943718, -0.04125320911407471, 0.0206296406686306, 0.028764670714735985, 0.02147132344543934, -0.03372439369559288], "activation": "relu"}, {"W": [[-0.13699588179588318, -0.4532076120376587, -0.2570357918739319, -0.261181503534317, 0.13979756832122803, -0.45674946904182434, 0.12180185317993164, -0.2500169575214386, 0.13838207721710205, -0.36497795581817627, -0.41017353534698486, 0.1846185326576233, 0.10392642021179199, 0.12325126677751541, -0.47240889072418213, -0.49791276454925537], [0.5761741995811462, -0.009514570236206055, 0.08044703304767609, 0.2906801700592041, -0.1691664159297943, 0.24786487221717834, 0.03508889675140381, 0.3151576519012451, -0.3398888111114502, -0.3048715889453888, 0.5577163696289062, -0.44479668140411377, -0.19854474067687988, -0.18098139762878418, -0.41861987113952637, 0.255427747964859], [0.20732267200946808, -0.3008296489715576, -0.30352646112442017, 0.4433513879776001, 0.3900078535079956, 0.5349650979042053, -0.2710646390914917, -0.17124438285827637, 0.11377690732479095, 0.047075334936380386, -0.13928747177124023, -0.016319381073117256, 0.22530972957611084, 0.05529358237981796, -0.21139419078826904, 0.13386979699134827], [-0.3529627025127411, -0.32045793533325195, 0.3397078812122345, 0.02361726015806198, -0.4233841300010681, 0.21398745477199554, 0.23396074771881104, -0.34672385454177856, -0.08336865156888962, -0.09949178993701935, -0.059591155499219894, -0.5081393718719482, 0.021522164344787598, 0.4161660075187683, -0.3426631689071655, -0.27902016043663025], [0.377828985452652, -0.48144304752349854, 0.34379494190216064, -0.2921222746372223, -0.5483297109603882, 0.0010073883458971977, -0.4489743709564209, 0.4214409589767456, -0.21459820866584778, -0.1487957388162613, 0.355926513671875, 0.4804335832595825, -0.42004990577697754, 0.06367740035057068, -0.1964566707611084, -0.6137124300003052], [0.15287674963474274, 0.3910917043685913, -0.21901921927928925, 0.22992061078548431, -0.2856839597225189, 0.5316721200942993, -0.3683357238769531, -0.41604235768318176, -0.5835264921188354, -0.3494132459163666, -0.04085557907819748, 0.5323985815048218, 0.1432734727859497, 0.2207794487476349, -0.26062631607055664, 0.3966491222381592], [0.15070614218711853, -0.2889198064804077, 0.2797148823738098, -0.3207225203514099, 0.34714066982269287, 0.17719125747680664, -0.2512390613555908, -0.08319517225027084, 0.5437136292457581, 0.4057198464870453, 0.5475271940231323, 0.3395155072212219, -0.16663634777069092, 0.11674188822507858, -0.04350459575653076, 0.031019238755106926], [0.25873810052871704, 0.15019655227661133, 0.00637879129499197, 0.089223712682724, 0.07247360050678253, -0.25252917408943176, -0.24650657176971436, 0.07108080387115479, 0.24785591661930084, 0.5675167441368103, -0.2628004252910614, -0.5044327974319458, 0.1482318639755249, -0.2349395453929901, 0.34685730934143066, 0.4004865884780884]], "b": [-0.018385406583547592, 0.0, 0.0024383971467614174, -0.04419093206524849, -0.02806048095226288, -0.09382186830043793, 0.0, 0.01036747731268406, 0.014240342192351818, 0.052171528339385986, 0.005993738304823637, 0.03038073144853115, 0.0, 0.09094680845737457, 0.0, -0.05229679495096207], "activation": "relu"}, {"W": [[0.30393052101135254, 0.6118259429931641], [-0.41185325384140015, 0.19466841220855713], [0.3268640637397766, -0.11316346377134323], [0.5858347415924072, 0.6057883501052856], [-0.23436900973320007, 0.3865486681461334], [-0.04828382283449173, 0.6797113418579102], [-0.32044389843940735, 0.3339195251464844], [0.4885561764240265, -0.3177618682384491], [0.3894491493701935, 0.1849682778120041], [0.48267239332199097, -0.2538595497608185], [0.6165996193885803, -0.24933947622776031], [-0.22056134045124054, 0.37570250034332275], [0.010414659976959229, -0.5413087010383606], [-0.4024079740047455, -0.05568081885576248], [0.541568398475647, -0.21682831645011902], [-0.3457673192024231, 0.05892953276634216]], "b": [0.004039575811475515, -0.02431352250277996], "activation": "linear"}], "scaler": {"data_min": [25.0, 37.9], "data_max": [32.7, 88.0]}, "threshold": 2.570037839505919e-05, "features": ["temperature", "humidity"]}